-3.812538,2.900144,5.089556,-0.6002349,-3.9232852,5.233897,-0.21287657,-0.9269185,-7.2910447,-5.2846956,-5.2851934,-3.0206966,-2.8278878,-4.705513,-5.4556527,-5.7962875,-6.638476,-2.0903368,-16.239454,-4.5002866
0.8752037,-0.29980677,-0.33865866,-0.31973293,-0.7344963,0.9371057,-1.8010759,0.23118508,-0.042079784,4.672029,-0.521511,-0.021519635,-1.6082734,-0.8271448,-1.2372601,4.2048187,-1.6865959,1.4158453,-2.1458058,-2.9747357
0.040331446,0.6467682,1.9715444,0.89635396,-0.016067868,-0.23087159,0.95023626,0.36992568,0.99507785,0.864485,1.1538972,0.8219652,0.43661174,1.1147261,-1.0238507,0.76713204,-2.856016,-1.380726,-1.4456881,-0.63291353
-0.5397849,0.382442,-0.41125354,-1.6591753,1.239509,-2.289869,4.6548853,4.165439,0.46719885,-0.9002608,-0.41774994,0.8249924,-1.2116108,-2.6465056,-2.4334257,5.2931585,-5.326179,-0.13913804,-4.4654427,3.2275739
-0.741921,-0.4935931,2.2485547,-0.89013517,-4.0727406,-0.2650971,4.2856145,-2.3960419,-0.08827574,0.17730306,-0.95625836,-3.728844,-3.1072698,-0.14501779,-2.7118707,0.8601871,0.82200176,0.019083599,-1.8343775,0.89983696
-1.8542867,-2.3193927,-0.57445467,0.26774806,-0.7207024,0.3442875,-2.360137,-3.0702968,-5.557463,-2.4555407,-3.2534003,-1.640876,-1.2041913,-3.745878,-2.9949005,0.17442101,-4.2311826,-0.106219694,-4.3663125,-3.750583
0.68467265,0.71207905,-0.80551195,-1.9316496,0.3882465,-3.2156699,2.0458446,1.7559448,2.7677095,0.5183821,-1.1532434,0.49386463,0.001574952,-1.5583916,-1.2291826,-0.32009885,-4.9927907,-0.1515611,-4.637502,-3.7920258
0.31482556,0.15691338,0.5643154,1.6303416,2.338632,-0.18041801,0.4458842,-0.41421905,-1.6666672,-0.40090573,-2.4762866,-0.56887776,-1.0376916,0.9059561,-2.4918692,3.3811634,-1.9087613,-0.34090984,0.23021252,0.28118485
0.07252382,2.7970254,0.33490515,-2.2167447,8.281256,-2.4106982,1.5904994,1.9071933,-6.2181444,5.590329,0.5237688,-2.9877,-2.441641,1.6685936,-4.2040634,-1.1606652,-11.910294,0.04578455,-7.216444,-5.097143
-0.8853693,-0.10574608,-0.3656982,-2.7392266,-4.9290695,-3.9900124,-1.433882,3.6044095,4.992905,0.9912799,0.09752824,-0.3350223,-0.48499173,-2.9582276,-5.568477,-2.0870652,-4.5869246,-1.3426892,-6.092257,0.6786255
-2.861398,-0.8169903,0.24961852,1.0087255,0.5659742,-1.5333649,0.4838744,-2.3381507,-1.3140342,-0.99539876,-1.5334696,-2.1246984,1.7083491,-1.2703531,-3.8840296,2.8239458,-2.3146467,-2.295101,-6.0295563,-2.0179996
1.3367331,-0.1182961,-3.1659832,-14.361316,-10.124735,-1.8680972,-5.022143,-11.781114,-14.334255,-4.051101,2.520132,-2.7631872,-1.6520696,-2.0969934,2.529954,2.4355123,0.30525222,-1.2864013,-5.286701,2.0938833
-0.14897625,-0.0773821,3.2722006,1.8053346,-2.8296587,-1.0874643,-2.3641176,1.9342757,-0.10509167,-1.3832561,3.9371476,0.6297374,-1.3804561,2.6613367,5.960458,-2.2830417,2.2981894,0.72564924,-1.3967038,4.5595546
-0.6981367,-3.5994213,-3.3129654,5.121068,-3.6878603,-2.4365056,2.152182,0.72472185,-0.58456874,-0.750195,-3.1293173,-4.544256,6.4709067,2.9297593,2.9216583,-4.796314,-0.108597435,-0.549594,-5.417221,2.3685565
-0.039516672,-0.5358632,0.86335444,0.37697992,-0.7699927,-0.3013135,-2.3783293,5.8358393,0.19837466,1.0747367,-0.45642322,-0.24406648,-0.14928995,1.5695955,-0.41815418,-0.65408415,-1.679175,-2.4064014,-6.77595,-1.502806
-1.0210273,0.83960944,-0.6374311,-0.5650078,0.38484573,0.9069517,-1.6673443,-4.301187,-5.6939273,-5.1567655,-4.0105147,-10.555892,-1.3854382,-6.382197,-5.8456283,-4.0817657,-4.6949053,-1.1106709,-2.1264274,-5.6318917
-1.1584867,0.0718119,-0.33429083,2.7938344,-2.841777,-1.714856,0.30909422,-4.0171824,7.260585,-3.301239,1.1551176,-4.1791034,-0.46688226,7.3228993,1.3154384,-5.600283,2.574432,-0.67284644,-11.180575,0.5489915
1.545172,-0.4284429,0.9374946,1.7192177,0.5278628,-0.06703486,-2.1014283,-0.40926737,-1.768193,1.7522792,0.03152386,-1.6455768,-0.15781629,-5.449087,-2.721823,-4.7853,-2.0696614,-0.70473135,-5.741745,-6.412626
-0.50463504,-0.2538766,0.9793563,0.59793967,-4.075433,-2.3374217,1.9465898,-4.970971,-5.640293,-7.804845,-5.515314,4.052881,-0.7875623,-3.36088,-7.3660684,-0.9650698,8.682505,-2.146411,-0.46138018,2.74417
-0.45070454,-1.4017136,0.66585666,-3.179434,-1.3155217,-0.71671927,-0.5011688,1.5118246,0.14629348,-0.27696767,2.1035826,1.0210513,0.9150858,-3.446815,3.4631953,6.827371,-1.7961015,-1.9614812,-3.5567982,3.4664912
-0.6621364,0.86672425,0.11219199,-5.649546,-6.0983434,-2.9621582,-4.440334,3.9447944,-2.0606441,4.5934033,3.8074095,-1.8918719,-0.110297196,2.6906867,-2.9719384,1.0781821,-1.0956838,-1.4494872,7.122208,4.0002656
-0.14426908,-0.022015797,-1.7744467,-8.565972,-7.9355073,-4.290964,-5.0559654,-1.8800197,2.880607,-3.68043,3.0369167,5.066297,-1.847675,-5.014351,0.24948844,-6.73521,0.5645154,-1.5283056,-3.1136417,-1.7426249
-1.7873535,-2.8887289,-4.7379766,-8.58018,-9.335581,-4.6277246,-12.700251,-11.636749,-8.081303,-1.8765489,-2.0175798,-0.670192,-1.1564829,-0.80277854,-2.5893524,-2.951377,1.1162624,2.9937804,-7.12942,2.6057417
2.357639,0.026305445,-4.4061856,-4.150511,-6.431554,-4.2387943,-3.963017,-5.9471445,-5.586673,-5.921324,-10.524371,-6.6012764,-3.366971,-2.9903808,-3.679625,0.2920316,-7.2788367,3.2014794,1.9254438,-0.16836338
-0.88187546,0.61316067,0.028723992,-3.3131459,-2.408984,-0.58756566,0.92273414,-2.199272,-3.2397327,0.49529457,-0.6243462,4.129402,-1.0249516,1.9099066,0.44932652,1.4746293,3.3607638,-1.1686418,-0.62341946,0.75164413
-0.8684003,-0.0053842114,-1.5660166,3.046704,-4.531486,-2.1193318,7.514514,-3.2114785,-0.3955151,-0.06774014,3.8728602,-4.819266,-0.7930349,-2.971534,4.623231,-3.0008526,-3.60747,-1.558262,-3.7203898,0.9212585
-0.59439,-0.20623079,1.7193997,1.9885257,0.73172075,-2.0236535,-3.8897383,-2.5612352,2.8900754,-0.55500495,-3.563886,-0.87095696,-2.1081715,0.3714061,-2.7887635,-0.2514377,-0.89804184,-1.0460764,-4.0597982,-0.44522637
-1.9651746,-0.41167268,1.3404682,1.9282529,1.7475735,0.814986,-0.5265092,-2.824834,0.5604794,-2.4027824,-1.9688281,-2.8660986,-1.5186427,-3.7132578,-2.9284134,-0.97526515,-5.018535,0.67617893,-6.148207,-1.9106739
0.1824343,-0.42843547,4.292256,-4.021504,-5.1360717,-0.53228664,5.624329,-1.7747185,-2.7965672,-1.4084514,-4.4601564,6.835045,0.24281083,-0.5773647,0.72213554,-3.7463007,2.750342,0.10185461,-2.8642275,-2.0475206
0.3412487,-2.89816,6.087442,-0.56604415,3.2425106,0.010968055,-0.52292746,0.5444798,-3.8351097,-1.5569087,5.255456,-4.115215,-2.39063,3.343798,-5.7439075,-2.0241942,2.7470636,-0.9997181,-3.2398384,3.8959155
-0.3107302,2.7370665,-1.6081862,-0.13822141,-0.94737005,-2.7618606,-7.3803177,-8.428915,-7.427333,-7.4640627,-6.1676793,-4.881078,-4.613298,-5.9901757,-0.8139863,-3.0562487,-9.847706,-2.3823416,-6.6007695,-2.699573
-0.9364886,0.43141562,1.8901894,-0.60478705,3.6026773,-0.9063174,-0.46227545,-2.4197354,-2.6988442,-5.5606875,0.06858314,3.4049337,-1.1693189,-0.55794656,-0.86887014,2.9014,-2.1160133,3.751501,-7.0058722,-1.1861113
-1.097435,-1.2077814,0.6290027,-0.48229384,-0.73881245,-1.9200554,0.47851118,-4.914326,-1.9743358,-0.25124058,-0.5020552,-2.288722,-0.25440043,2.603711,-3.124478,0.83255,-1.3832618,0.21477813,-5.7747416,-1.9766257
-0.8019903,2.3832939,-0.23605628,-3.6123588,-8.14871,-3.619963,2.2186124,-4.220767,-5.3682356,6.76868,-1.4157176,-2.6758757,1.2238762,-0.43168375,-4.560745,-4.8046656,-5.9977546,-2.3171875,-9.81703,0.46095362
-0.69311213,0.13297953,1.2689364,0.12151464,1.2988738,-1.1726779,0.1476465,-2.7031925,0.6325155,-0.1070434,-0.20500183,-1.9010749,-1.8600717,-0.2198096,-1.7858164,9.937176,8.865523,0.10613208,-1.4298296,-1.9829993
0.6455155,1.3080411,-0.1589275,-1.8696332,-4.699045,-1.3311374,-4.974536,0.14719442,1.285481,-3.329569,1.8484459,1.6007206,-1.9300257,-0.5903311,2.9831934,-0.04668122,1.985533,0.9636804,0.39953086,-2.9488368
-1.0398053,-1.1986299,0.69923085,-1.2390947,-4.8626513,7.6840143,-6.7857203,-6.8440056,-5.889437,-5.2448797,-1.4162245,-3.269092,-0.57732993,-11.775903,-7.586657,-9.595308,0.24105898,0.8670402,-12.900205,-0.13131759
-0.8107168,-0.58446455,-0.6347068,8.573001,4.8603683,-0.93643,-4.091542,-4.284872,-1.6918057,2.5247989,-0.57702523,5.65464,0.9146999,-1.7690078,-2.872883,4.6038704,-4.0176826,-1.4321846,-2.5187514,2.4439898
3.7586644,-5.928933,-2.7371104,-8.656246,-1.3267307,4.3915114,-0.16545628,-1.3820176,4.8179407,0.8108752,-4.369802,-4.711204,-5.054986,3.8433712,-4.7934623,3.4771779,-2.582144,-2.4266827,-2.3569098,3.775759
0.6701972,0.8637923,-1.1326792,-6.7494373,1.1033598,-2.067134,2.270834,9.045919,1.1381104,-3.4739897,-2.711345,-4.360803,-0.6743515,-1.092031,-3.7234542,-1.0341529,5.244857,-1.0797949,0.75105983,1.5021777
-0.40061042,1.1957196,-2.8147068,3.0044348,-0.7981243,-1.3138973,2.6274278,-0.84102386,2.211295,-0.9935247,3.8211064,-4.6702747,-2.6019578,0.83282715,-1.6394264,-0.7962174,0.64392525,1.3359814,8.623243,-0.6332559
-1.198624,-0.076043986,-2.8025703,-7.1267567,-9.059004,-6.9274745,-6.961306,-2.2808661,3.1075335,2.028107,0.2631104,-1.5921614,0.61159796,-5.4237604,2.4718258,-1.4068202,-1.9239554,-0.65497994,-6.7786965,-1.2005705
-0.3055505,0.6342954,1.2328069,0.48396146,-2.1341784,-2.4548476,-0.91337144,3.4414918,-1.5887723,-1.7887783,-3.7841547,-8.170045,-0.98464483,1.6834806,-3.5451484,5.2332444,-2.9545774,-1.5821553,-3.42664,-1.366539
-0.31870407,0.41547665,2.1593542,0.056461893,-3.0865822,-1.4883987,-2.091151,-0.9255149,-2.0837448,0.23923406,-0.33371478,-0.5961672,-0.49125257,-0.06007229,3.4978516,-1.0448941,3.2237382,-0.85315585,-1.7725164,-0.9104984
0.6815608,1.7291477,-8.222687,-5.662835,-2.9462428,3.622679,-5.996577,-3.5286016,-6.5172777,-4.8258166,-3.510431,6.770902,0.91774297,4.5958533,4.4395056,-3.606756,-0.13011761,-0.7435198,2.491879,-7.0187364
-0.72092515,-0.4238012,1.4546455,1.2462909,-1.0736554,0.21919176,0.57480025,-3.9972897,-2.5287516,5.842729,1.8099902,-1.9017423,-0.9985043,-5.622374,5.146689,3.4463336,-2.7000546,-0.6688216,-4.918069,-2.0748687
-0.8887375,0.29684973,-0.8349889,-1.3783224,2.0770755,1.1278924,1.1498471,-2.7504551,-7.918149,-16.699648,-3.9206865,-12.135132,-0.072963834,-5.1459293,-8.497207,-13.188714,-9.6959095,-1.4264988,-14.180578,-14.136887
0.2391023,0.46791905,-0.1948442,-4.2640004,-1.6514333,-0.3540731,-0.18297967,-1.6891617,-2.9658976,1.5229588,-0.5187178,2.1838398,1.4700958,-1.3166629,-2.992843,-0.8775646,-1.2462829,-0.83007616,-0.6609525,-0.27032268
-0.37354654,-3.1468797,-3.9899485,-2.654028,1.1990566,-2.2838407,2.8404756,-1.9739627,3.85668,-6.049607,-2.7619154,-1.6435933,3.7763193,-6.536049,-5.838049,-4.7969184,0.82353306,3.4690697,-1.6658862,-3.7172277
0.29355344,0.13298848,0.18431586,-0.32726043,1.4858936,-2.362066,4.2299347,0.10570774,0.1136689,-1.6274536,-3.0807054,-6.9008865,-3.2042835,-6.1988635,-3.3776588,6.910338,1.4067745,-0.22004882,-3.6785421,-0.6959288